{"features":["sin_oct","cos_oct","sin_wind","cos_wind","wind_calm","wind_kt","head_kt","cross_kt","gust_kt","sin_brg","cos_brg","sin_hour","cos_hour","visib","ceiling","no_ceiling","is_mvfr","is_ifr","is_lifr","temp","arr_rate","inbound","sector","bias"],"trainedRows":13641,"cleanRows":8096,"airports":{"EGLL":{"classes":["09L","09R","27L","27R"],"W":[[-0.82812,-0.58085,0.5344,0.87457],[-0.10497,0.01064,0.10051,-0.00618],[1.64334,0.70126,-1.97095,-0.37366],[1.13388,0.79578,-0.72797,-1.2017],[-1.16191,-0.19959,0.9093,0.4522],[0.88669,-0.08082,-0.84725,0.04138],[-0.89121,-0.19436,0.40549,0.68008],[0.41325,0.09666,-0.70739,0.19748],[0.19236,0.09463,-0.15374,-0.13325],[-0.84803,-0.57593,0.60046,0.8235],[0.47713,-0.13239,-0.37909,0.03434],[-0.97713,-0.39496,1.23394,0.13815],[0.13865,0.80133,-0.71633,-0.22364],[0.29272,0.01667,-0.20935,-0.10004],[0.10556,-0.01894,-0.056,-0.03063],[-0.0278,0.13509,-0.08495,-0.02233],[0.12511,-0.0502,-0.04815,-0.02676],[0.0,0.0,0.0,0.0],[0.0,0.0,0.0,0.0],[-0.12381,-0.24403,0.22563,0.14221],[0.7632,-0.21257,-0.10486,-0.44578],[0.10622,-0.26147,0.35717,-0.20192],[0.66325,-0.33928,-0.42873,0.10477],[0.48787,0.02778,-0.34892,-0.16673]],"engineAccT":91.5,"modelAccT":14.2,"modelAccRand":85.5,"adopt":false,"n":2647},"KJFK":{"classes":["04L","04R","13L","13R","22L","22R","31L","31R"],"W":[[-0.50466,-0.81036,-1.20536,-0.75399,1.15256,0.30083,0.37637,1.44462],[0.08861,-0.68074,-0.30013,0.53096,1.231,0.68754,-0.62224,-0.935],[0.08666,0.7558,0.68478,0.10163,0.02419,-0.82731,-0.70008,-0.12567],[0.22317,1.06691,-1.07241,0.13535,-1.5475,-0.00431,0.35746,0.84133],[-0.01221,-0.01989,-0.12065,0.05578,-0.34378,-0.10065,0.4099,0.1315],[-0.06296,-0.01679,-0.19058,-0.15951,0.91,0.12037,-0.23472,-0.36582],[0.02708,0.29472,0.20243,-0.1177,-0.87975,-0.1979,0.02313,0.64799],[-0.02642,-0.21765,-0.20105,-0.03632,0.7515,0.19958,-0.15539,-0.31424],[-0.04712,-0.16805,-0.14635,-0.05269,-0.64302,-0.1583,0.55456,0.66097],[-0.43506,-0.97518,-1.32038,-0.80344,0.96701,0.23009,0.34978,1.98719],[0.01304,-0.7694,-0.36691,0.5148,0.76159,0.78856,-0.78116,-0.16053],[-0.05202,1.16473,-0.65803,0.10011,0.02328,-0.58446,-0.41976,0.42615],[0.29828,0.55288,0.052,-0.43423,0.09757,-0.0148,-0.49557,-0.05614],[-0.18801,0.43404,0.02853,-0.08755,1.44235,0.13112,-0.66886,-1.09162],[0.06709,0.82798,-0.55892,-0.18803,0.30763,-0.16495,-0.0867,-0.2041],[-0.23756,-0.39899,0.70333,0.14497,0.36815,0.32068,-0.30549,-0.59509],[-0.06525,-0.14708,-0.15415,-0.06684,1.36638,-0.15143,-0.30005,-0.48157],[-0.06095,-0.0966,-0.1962,-0.06568,1.26055,-0.20382,0.05928,-0.69657],[-0.00438,-0.00388,-0.01139,-0.00524,0.45457,-0.02002,-0.11651,-0.29316],[-0.24115,-0.2269,-0.33322,-0.15697,0.67561,-0.03492,0.08662,0.23092],[-0.12551,-0.32372,0.56439,0.00669,-0.31337,0.18311,-0.09296,0.10136],[-0.2296,-0.57656,0.40128,0.13428,-0.74212,0.01314,0.52758,0.47202],[-0.35022,-0.86353,0.33576,0.17534,-0.38323,0.02206,0.33152,0.7323],[-0.31083,0.05865,-0.34793,-0.18955,1.21822,-0.27906,-0.13545,-0.01406]],"engineAccT":61.0,"modelAccT":67.8,"modelAccRand":90.7,"adopt":true,"n":2194},"KLAX":{"classes":["06R","24L","24R","25L","25R"],"W":[[-1.39679,0.45186,0.44843,0.16836,0.32814],[-0.30431,0.2432,0.51579,-0.29697,-0.1577],[-0.16732,0.69989,-0.64314,-0.62428,0.73485],[0.23029,-0.54554,0.53293,0.4756,-0.69328],[-0.00597,-1.00567,1.02139,1.0777,-1.08745],[-0.139,-0.77532,0.84089,0.77229,-0.69886],[-0.22237,-0.50237,0.55841,0.62966,-0.46333],[-0.02908,-0.38041,0.4101,0.41723,-0.41783],[-0.01189,-0.55374,0.65419,0.63409,-0.72265],[-1.40946,0.12565,0.41128,0.36573,0.5068],[-0.45164,2.57731,2.83095,-2.71451,-2.24211],[0.40997,-0.47783,0.3921,0.29294,-0.61718],[0.5857,-0.43737,0.058,0.13938,-0.34571],[-0.02338,0.21496,-0.4782,-0.22503,0.51166],[0.10567,-0.17196,0.03221,0.19388,-0.1598],[-0.56657,0.61731,-0.34208,-0.33662,0.62796],[0.33712,-0.21676,-0.12897,-0.10091,0.10952],[0.10833,-0.78303,0.65012,0.7272,-0.70263],[0.0,0.0,0.0,0.0,0.0],[-0.05373,-0.00598,-0.21977,-0.08019,0.35967],[-0.57565,0.34882,-0.01005,-0.05774,0.29461],[-0.42082,0.12478,-0.03019,0.23308,0.09316],[-0.47138,0.13497,0.02915,0.60247,-0.29521],[-0.00497,-0.30228,-0.03744,0.29828,0.04642]],"engineAccT":86.5,"modelAccT":4.4,"modelAccRand":58.6,"adopt":false,"n":3255}},"pooled":{"engine":81.2,"model":24.8,"testRows":2025}}