{"features":["sin_oct","cos_oct","sin_wind","cos_wind","wind_calm","wind_kt","head_kt","cross_kt","gust_kt","sin_brg","cos_brg","sin_hour","cos_hour","visib","ceiling","no_ceiling","is_mvfr","is_ifr","is_lifr","temp","arr_rate","inbound","sector","bias"],"trainedRows":13702,"cleanRows":8120,"airports":{"EGLL":{"classes":["09L","09R","27L","27R"],"W":[[-0.82812,-0.58085,0.5344,0.87457],[-0.10497,0.01064,0.10051,-0.00618],[1.64334,0.70126,-1.97095,-0.37366],[1.13388,0.79578,-0.72797,-1.2017],[-1.16191,-0.19959,0.9093,0.4522],[0.88669,-0.08082,-0.84725,0.04138],[-0.89121,-0.19436,0.40549,0.68008],[0.41325,0.09666,-0.70739,0.19748],[0.19236,0.09463,-0.15374,-0.13325],[-0.84803,-0.57593,0.60046,0.8235],[0.47713,-0.13239,-0.37909,0.03434],[-0.97713,-0.39496,1.23394,0.13815],[0.13865,0.80133,-0.71633,-0.22364],[0.29272,0.01667,-0.20935,-0.10004],[0.10556,-0.01894,-0.056,-0.03063],[-0.0278,0.13509,-0.08495,-0.02233],[0.12511,-0.0502,-0.04815,-0.02676],[0.0,0.0,0.0,0.0],[0.0,0.0,0.0,0.0],[-0.12381,-0.24403,0.22563,0.14221],[0.7632,-0.21257,-0.10486,-0.44578],[0.10622,-0.26147,0.35717,-0.20192],[0.66325,-0.33928,-0.42873,0.10477],[0.48787,0.02778,-0.34892,-0.16673]],"engineAccT":91.5,"modelAccT":14.2,"modelAccRand":85.5,"adopt":false,"n":2647},"KJFK":{"classes":["04L","04R","13L","13R","22L","22R","31L","31R"],"W":[[-0.50164,-0.81008,-1.21033,-0.7506,1.15478,0.30045,0.37507,1.44234],[0.08901,-0.67902,-0.30223,0.52942,1.23058,0.68561,-0.62087,-0.9325],[0.08565,0.7519,0.68778,0.10043,0.02538,-0.82633,-0.69846,-0.12635],[0.22368,1.07101,-1.0818,0.13646,-1.54641,-0.00254,0.3577,0.84189],[-0.01212,-0.01971,-0.11907,0.05569,-0.34349,-0.09992,0.4078,0.13083],[-0.06311,-0.01517,-0.1956,-0.15868,0.90802,0.12044,-0.2326,-0.36331],[0.02662,0.29483,0.19722,-0.11711,-0.87622,-0.19663,0.02435,0.64694],[-0.0267,-0.21606,-0.20167,-0.0363,0.75067,0.1986,-0.15511,-0.31344],[-0.0469,-0.16783,-0.14659,-0.05245,-0.6407,-0.15783,0.55298,0.65932],[-0.43255,-0.97379,-1.32422,-0.79991,0.96989,0.22973,0.34837,1.98248],[0.01392,-0.76797,-0.36735,0.51332,0.76145,0.78633,-0.77875,-0.16096],[-0.05115,1.16175,-0.65351,0.09984,0.0232,-0.58325,-0.42125,0.42438],[0.29469,0.54988,0.0702,-0.43585,0.09756,-0.0194,-0.49774,-0.05934],[-0.18896,0.4323,0.03099,-0.08833,1.43713,0.12966,-0.66607,-1.08673],[0.06664,0.82737,-0.56242,-0.18702,0.30738,-0.16367,-0.08589,-0.20239],[-0.23813,-0.39996,0.70969,0.14294,0.367,0.31774,-0.30494,-0.59433],[-0.06504,-0.14673,-0.15452,-0.06663,1.36255,-0.15093,-0.29912,-0.47958],[-0.06072,-0.09637,-0.19497,-0.06549,1.25398,-0.20309,0.05938,-0.69272],[-0.00436,-0.00387,-0.0112,-0.00523,0.45188,-0.01996,-0.1158,-0.29147],[-0.24128,-0.22589,-0.33287,-0.15685,0.67465,-0.0347,0.0863,0.23064],[-0.12727,-0.3252,0.57141,0.00516,-0.31341,0.18128,-0.09294,0.10097],[-0.2299,-0.57669,0.4027,0.13325,-0.7394,0.01302,0.52607,0.47094],[-0.34968,-0.86143,0.32885,0.17498,-0.38027,0.02354,0.33267,0.73133],[-0.31133,0.05784,-0.34346,-0.19001,1.21563,-0.27889,-0.13585,-0.01393]],"engineAccT":60.3,"modelAccT":69.2,"modelAccRand":89.3,"adopt":true,"n":2207},"KLAX":{"classes":["06R","24L","24R","25L","25R"],"W":[[-1.39586,0.45099,0.44835,0.16931,0.32721],[-0.30328,0.2445,0.51297,-0.29445,-0.15975],[-0.16657,0.70162,-0.64388,-0.62696,0.73579],[0.22992,-0.54679,0.53404,0.47792,-0.69509],[-0.006,-1.00231,1.01774,1.07466,-1.08408],[-0.13898,-0.77244,0.83907,0.76926,-0.69691],[-0.22227,-0.50287,0.56007,0.62991,-0.46485],[-0.02905,-0.38314,0.41358,0.41845,-0.41984],[-0.01289,-0.60766,0.72097,0.68205,-0.78247],[-1.40841,0.12282,0.41212,0.36786,0.50562],[-0.45033,2.57236,2.83951,-2.72416,-2.23737],[0.40999,-0.47626,0.38897,0.29212,-0.61482],[0.58502,-0.43718,0.05545,0.14229,-0.34558],[-0.02322,0.21494,-0.47698,-0.22577,0.51103],[0.10563,-0.17064,0.03104,0.19265,-0.15867],[-0.56582,0.61965,-0.34425,-0.34018,0.63059],[0.3369,-0.21788,-0.12757,-0.09882,0.10737],[0.10794,-0.78267,0.65071,0.72669,-0.70267],[0.0,0.0,0.0,0.0,0.0],[-0.05364,-0.00658,-0.21716,-0.08051,0.35789],[-0.5757,0.3442,-0.00425,-0.05374,0.28949],[-0.42038,0.13205,-0.04702,0.23446,0.10089],[-0.47082,0.13601,0.02902,0.59975,-0.29397],[-0.00486,-0.30057,-0.03766,0.29589,0.0472]],"engineAccT":86.7,"modelAccT":4.7,"modelAccRand":60.6,"adopt":false,"n":3266}},"pooled":{"engine":81.1,"model":25.3,"testRows":2031}}